/* Auto-generated One-Class SVM Model for GangaEdge (with Feature Scaling) */
#pragma once
#include <cstdarg>
namespace Eloquent {
    namespace ML {
        namespace Port {
            class GangaEdgeAnomalyDetector {
                public:
                    /**
                    * Predict class for features vector
                    */
                    int predict(float *x) {
                        float kernels[89] = { 0 };
                        kernels[0] = compute_kernel(x,   1.427756853796  , 1.949027408117  , 1.462213646386  , -0.454666900006 );
                        kernels[1] = compute_kernel(x,   -1.377592909787  , -1.541009184721  , 2.188401436233  , -0.290328463674 );
                        kernels[2] = compute_kernel(x,   -1.317219528935  , -1.626132028449  , 2.077627027612  , -0.365650246993 );
                        kernels[3] = compute_kernel(x,   -1.357468449503  , -1.20051780981  , 2.409950253475  , -0.334836790181 );
                        kernels[4] = compute_kernel(x,   -1.297095068651  , -1.711254872177  , 2.26225104198  , -0.310870768216 );
                        kernels[5] = compute_kernel(x,   -1.019377516732  , -1.541009184721  , 2.422258521099  , -0.351955377299 );
                        kernels[6] = compute_kernel(x,   -1.156223846663  , -0.774903591171  , 2.66842387359  , -0.238972702321 );
                        kernels[7] = compute_kernel(x,   -1.236721687799  , -1.796377715905  , 2.422258521099  , -0.266362441709 );
                        kernels[8] = compute_kernel(x,   -1.164273630777  , -1.285640653538  , 2.693040408839  , -0.369073964417 );
                        kernels[9] = compute_kernel(x,   -0.963029027937  , -1.796377715905  , 2.422258521099  , -0.27663359398 );
                        kernels[10] = compute_kernel(x,   -0.930829891483  , -1.115394966082  , 2.619190803092  , -0.358802812146 );
                        kernels[11] = compute_kernel(x,   -0.765809317154  , -2.221991934544  , 2.508416394471  , -0.252667572015 );
                        kernels[12] = compute_kernel(x,   -0.882531186801  , -1.115394966082  , 2.705348676463  , -0.259515006862 );
                        kernels[13] = compute_kernel(x,   -0.890580970915  , -1.541009184721  , 2.705348676463  , -0.215006680356 );
                        kernels[14] = compute_kernel(x,   -0.757759533041  , -1.030272122355  , 2.816123085084  , -0.201311810661 );
                        kernels[15] = compute_kernel(x,   -0.661162123678  , -0.093920841349  , 2.828431352709  , -0.444395747735 );
                        kernels[16] = compute_kernel(x,   -0.810083129779  , -1.285640653538  , 2.717656944088  , -0.215006680356 );
                        kernels[17] = compute_kernel(x,   -0.600788742826  , -1.030272122355  , 2.766890014586  , -0.238972702321 );
                        kernels[18] = compute_kernel(x,   -0.560539822258  , -1.455886340994  , 2.594574267843  , -0.310870768216 );
                        kernels[19] = compute_kernel(x,   1.32310966032  , 2.204395939301  , 1.302206167267  , -0.4101585735 );
                        kernels[20] = compute_kernel(x,   -1.180373199004  , -2.647606153182  , 0.969882941405  , -0.369073964417 );
                        kernels[21] = compute_kernel(x,   0.727425635915  , 1.353167502023  , 2.15147663336  , 4.194741361215 );
                        kernels[22] = compute_kernel(x,   0.803898584994  , 1.949027408117  , 1.769920336999  , 4.146809317285 );
                        kernels[23] = compute_kernel(x,   -0.005104718421  , -0.945149278627  , 1.47452191401  , 4.971925216367 );
                        kernels[24] = compute_kernel(x,   0.377260026974  , -0.604657903716  , 1.806845139873  , 4.879484845931 );
                        kernels[25] = compute_kernel(x,   0.389334703144  , -0.43441221626  , 1.572988055007  , 4.941111759555 );
                        kernels[26] = compute_kernel(x,   1.266761171525  , 1.268044658295  , 1.252973096769  , 4.636400908857 );
                        kernels[27] = compute_kernel(x,   1.459955990251  , 0.842430439656  , 1.117582152899  , 4.711722692175 );
                        kernels[28] = compute_kernel(x,   1.32310966032  , 1.012676127112  , 1.634529393129  , 4.684332952787 );
                        kernels[29] = compute_kernel(x,   1.359333688831  , 1.09779897084  , 1.597604590256  , 4.612434886892 );
                        kernels[30] = compute_kernel(x,   1.484105342591  , 0.33169337729  , 1.60991285788  , 4.564502842961 );
                        kernels[31] = compute_kernel(x,   1.206387790673  , -0.179043685077  , 1.954544351367  , 4.711722692175 );
                        kernels[32] = compute_kernel(x,   1.327134552376  , 0.33169337729  , 1.708378998876  , 4.585045147503 );
                        kernels[33] = compute_kernel(x,   1.331159444433  , 1.268044658295  , 1.400672308263  , 4.475486189948 );
                        kernels[34] = compute_kernel(x,   1.218462466843  , 1.523413189479  , 1.659145928378  , 4.636400908857 );
                        kernels[35] = compute_kernel(x,   1.331159444433  , 0.757307595929  , 1.905311280869  , 4.73568871414 );
                        kernels[36] = compute_kernel(x,   1.174188654218  , 2.119273095573  , 1.720687266501  , -0.307447050792 );
                        kernels[37] = compute_kernel(x,   0.562405061586  , 2.63001015794  , 1.179123491022  , -0.396463703805 );
                        kernels[38] = compute_kernel(x,   -1.462115642979  , -2.562483309455  , 1.142198688148  , -0.173922071273 );
                        kernels[39] = compute_kernel(x,   -1.494314779433  , -1.711254872177  , -0.580958779286  , 4.701451539905 );
                        kernels[40] = compute_kernel(x,   0.405434271371  , -0.519535059988  , -1.270221766259  , 5.872362898769 );
                        kernels[41] = compute_kernel(x,   0.34506089052  , -0.349289372533  , -0.937898540397  , 5.879210333616 );
                        kernels[42] = compute_kernel(x,   0.272612833497  , -0.774903591171  , -1.319454836758  , 5.855244311651 );
                        kernels[43] = compute_kernel(x,   0.361160458747  , -1.115394966082  , -1.38099617488  , 5.93056609497 );
                        kernels[44] = compute_kernel(x,   0.377260026974  , 0.161447689834  , -1.110214287141  , 5.879210333616 );
                        kernels[45] = compute_kernel(x,   0.461782760167  , -0.43441221626  , -0.974823343271  , 5.793617398027 );
                        kernels[46] = compute_kernel(x,   0.385309811088  , 0.076324846106  , -1.196372160512  , 5.927142377546 );
                        kernels[47] = compute_kernel(x,   0.417508947542  , 0.927553283384  , -1.110214287141  , 5.916871225275 );
                        kernels[48] = compute_kernel(x,   0.485932112507  , 0.161447689834  , -1.196372160512  , 5.944260964664 );
                        kernels[49] = compute_kernel(x,   1.363358580888  , 2.119273095573  , -1.196372160512  , 4.020131772612 );
                        kernels[50] = compute_kernel(x,   0.377260026974  , 1.86390456439  , -0.86404893465  , 4.708298974752 );
                        kernels[51] = compute_kernel(x,   0.993068511663  , 2.374641626756  , -1.24560523101  , -0.242396419744 );
                        kernels[52] = compute_kernel(x,   -1.019377516732  , 0.076324846106  , -1.737935935991  , 4.745959866411 );
                        kernels[53] = compute_kernel(x,   0.803898584994  , 2.544887314212  , -0.937898540397  , -0.27663359398 );
                        kernels[54] = compute_kernel(x,   1.327134552376  , 1.353167502023  , -2.30411624672  , -0.269786159133 );
                        kernels[55] = compute_kernel(x,   1.258711387411  , 1.523413189479  , -2.341041049593  , -0.283481028827 );
                        kernels[56] = compute_kernel(x,   1.351283904717  , 2.034150251845  , -1.602544992122  , -0.297175898522 );
                        kernels[57] = compute_kernel(x,   1.488130234648  , 1.268044658295  , -1.934868217984  , -0.413582290923 );
                        kernels[58] = compute_kernel(x,   1.480080450534  , 1.523413189479  , -1.836402076988  , -0.365650246993 );
                        kernels[59] = compute_kernel(x,   1.141989517764  , 2.119273095573  , -1.947176485608  , -0.256091289439 );
                        kernels[60] = compute_kernel(x,   1.198338006559  , 1.949027408117  , -1.89794341511  , -0.211582962932 );
                        kernels[61] = compute_kernel(x,   1.057466784571  , 2.034150251845  , -2.341041049593  , -0.32456563791 );
                        kernels[62] = compute_kernel(x,   -1.349418665389  , -0.945149278627  , -2.513356796337  , -0.348531659875 );
                        kernels[63] = compute_kernel(x,   -1.381617801843  , -1.370763497266  , -2.230266640973  , -0.37249768184 );
                        kernels[64] = compute_kernel(x,   -1.353443557446  , -1.115394966082  , -2.513356796337  , -0.297175898522 );
                        kernels[65] = compute_kernel(x,   -1.369543125673  , -1.20051780981  , -2.291807979095  , -0.36222652957 );
                        kernels[66] = compute_kernel(x,   -1.337343989219  , -1.370763497266  , -2.43950719059  , -0.355379094722 );
                        kernels[67] = compute_kernel(x,   -1.48626499532  , -1.796377715905  , -2.341041049593  , -0.194464375814 );
                        kernels[68] = compute_kernel(x,   -1.421866722411  , -1.455886340994  , -2.390274120092  , -0.256091289439 );
                        kernels[69] = compute_kernel(x,   -1.389667585957  , -1.711254872177  , -2.30411624672  , -0.252667572015 );
                        kernels[70] = compute_kernel(x,   -1.470165427093  , -1.455886340994  , -2.390274120092  , -0.32456563791 );
                        kernels[71] = compute_kernel(x,   -1.437966290638  , -0.860026434899  , -2.451815458214  , -0.300599615945 );
                        kernels[72] = compute_kernel(x,   -1.417841830354  , -1.711254872177  , -2.107183964727  , -0.36222652957 );
                        kernels[73] = compute_kernel(x,   -1.365518233616  , -1.455886340994  , -2.365657584842  , -0.447819465159 );
                        kernels[74] = compute_kernel(x,   -1.369543125673  , -1.711254872177  , -2.119492232352  , -0.331413072757 );
                        kernels[75] = compute_kernel(x,   -1.264895932196  , -2.221991934544  , -1.676394597869  , -0.256091289439 );
                        kernels[76] = compute_kernel(x,   -1.099875357868  , -2.73272899691  , -1.602544992122  , -0.211582962932 );
                        kernels[77] = compute_kernel(x,   0.095517582999  , -1.115394966082  , -1.737935935991  , 4.715146409599 );
                        kernels[78] = compute_kernel(x,   1.34725901266  , 1.86390456439  , -1.528695386375  , -0.399887421229 );
                        kernels[79] = compute_kernel(x,   -1.325269313048  , -2.136869090816  , -2.045642626605  , -0.304023333369 );
                        kernels[80] = compute_kernel(x,   1.459955990251  , 1.778781720662  , -1.811785541739  , -0.27663359398 );
                        kernels[81] = compute_kernel(x,   1.2224873589  , 2.119273095573  , -1.442537513003  , -0.351955377299 );
                        kernels[82] = compute_kernel(x,   0.864271965846  , 2.715133001667  , -0.027086736182  , -0.242396419744 );
                        kernels[83] = compute_kernel(x,   0.972944051379  , 1.438290345751  , -0.790199328903  , 4.742536148988 );
                        kernels[84] = compute_kernel(x,   0.787799016767  , 1.693658876934  , -0.642500117408  , 4.7733496058 );
                        kernels[85] = compute_kernel(x,   0.815973261164  , 1.608536033206  , -0.765582793654  , 4.858942541389 );
                        kernels[86] = compute_kernel(x,   -1.297095068651  , -1.030272122355  , -0.051703271431  , 5.485482829904 );
                        kernels[87] = compute_kernel(x,   -1.450040966809  , -0.264166528805  , 0.317544757305  , 5.485482829904 );
                        kernels[88] = compute_kernel(x,   -1.401742262127  , -1.20051780981  , 0.083687672439  , 5.533414873835 );
                        float decision = -84.112497656891 - ( + kernels[0]   + kernels[1]   + kernels[2] * 0.656235043292  + kernels[3]   + kernels[4]   + kernels[5]   + kernels[6]   + kernels[7]   + kernels[8]   + kernels[9]   + kernels[10]   + kernels[11]   + kernels[12]   + kernels[13]   + kernels[14]   + kernels[15]   + kernels[16]   + kernels[17]   + kernels[18]   + kernels[19]   + kernels[20]   + kernels[21]   + kernels[22]   + kernels[23]   + kernels[24]   + kernels[25] * 0.091487394706  + kernels[26]   + kernels[27]   + kernels[28]   + kernels[29]   + kernels[30]   + kernels[31]   + kernels[32]   + kernels[33]   + kernels[34]   + kernels[35]   + kernels[36]   + kernels[37]   + kernels[38]   + kernels[39]   + kernels[40]   + kernels[41]   + kernels[42]   + kernels[43]   + kernels[44]   + kernels[45]   + kernels[46]   + kernels[47]   + kernels[48]   + kernels[49]   + kernels[50]   + kernels[51]   + kernels[52]   + kernels[53] * 0.488007603283  + kernels[54]   + kernels[55]   + kernels[56]   + kernels[57] * 0.660772292102  + kernels[58]   + kernels[59]   + kernels[60]   + kernels[61]   + kernels[62]   + kernels[63]   + kernels[64]   + kernels[65]   + kernels[66]   + kernels[67]   + kernels[68]   + kernels[69]   + kernels[70]   + kernels[71]   + kernels[72]   + kernels[73]   + kernels[74]   + kernels[75]   + kernels[76]   + kernels[77] * 0.503497666625  + kernels[78]   + kernels[79]   + kernels[80]   + kernels[81]   + kernels[82]   + kernels[83]   + kernels[84]   + kernels[85]   + kernels[86]   + kernels[87]   + kernels[88]  );

                        return decision > 0 ? 0 : 1;
                    }

                protected:
                    /**
                    * Compute kernel between feature vector and support vector.
                    * Kernel type: rbf
                    */
                    float compute_kernel(float *x, ...) {
                        va_list w;
                        va_start(w, 4);
                        float kernel = 0.0;

                        for (uint16_t i = 0; i < 4; i++) {
                            kernel += pow(x[i] - va_arg(w, double), 2);
                        }

                        return exp(-0.001 * kernel);
                    }
                };
            }
        }
    }